<?xml version="1.0"?>
<opencv_storage>
<stage5>
  <maxWeakCount>6</maxWeakCount>
  <stageThreshold>-2.1915214061737061e+00</stageThreshold>
  <weakClassifiers>
    <_>
      <internalNodes>
        0 -1 151826 6.5569609403610229e-02</internalNodes>
      <leafValues>
        -9.4528877735137939e-01 1.</leafValues></_>
    <_>
      <internalNodes>
        0 -1 13288 -1.5868902206420898e-02</internalNodes>
      <leafValues>
        3.0851852893829346e-01 -7.7872747182846069e-01</leafValues></_>
    <_>
      <internalNodes>
        0 -1 8186 2.1528997458517551e-03</internalNodes>
      <leafValues>
        -5.7820159196853638e-01 3.6208629608154297e-01</leafValues></_>
    <_>
      <internalNodes>
        0 -1 48753 8.1640487769618630e-04</internalNodes>
      <leafValues>
        1.5894377231597900e-01 -9.6566861867904663e-01</leafValues></_>
    <_>
      <internalNodes>
        0 -1 158845 -9.0296883136034012e-03</internalNodes>
      <leafValues>
        6.6413807868957520e-01 -2.9806229472160339e-01</leafValues></_>
    <_>
      <internalNodes>
        0 -1 130287 6.2479684129357338e-03</internalNodes>
      <leafValues>
        2.4981492757797241e-01 -8.5132730007171631e-01</leafValues></_></weakClassifiers></stage5>
</opencv_storage>
